#define N_KERNEL 100
const int16_t kernel[] = {0,0.000000000000000000e+00,2.219334254050643217e-09,8.504436955965809290e-09,2.159576860120772271e-08,4.128144631313320534e-08,5.523068190477331807e-08,2.176316319766728463e-08,-1.516969371808631814e-07,-6.142285494987395563e-07,-1.511469042125302206e-06,-2.778164961586041966e-06,-3.702208487113738605e-06,-2.284957246480095584e-06,5.278265966815704937e-06,2.415159989844837391e-05,5.803006147089855336e-05,1.024394614997178892e-04,1.340377459585125888e-04,9.955223128399920711e-05,-8.584034206413221899e-05,-5.146686200700428641e-04,-1.221353247843836925e-03,-2.071403696738056879e-03,-2.636160026220846480e-03,-2.133065355610325436e-03,4.459471527065612950e-04,5.901754582439593458e-03,1.407641028827007375e-02,2.298086424888183543e-02,2.826920771415768890e-02,2.370438163488818029e-02,3.144198111539096060e-03,-3.598308076467304772e-02,-8.869351093611720083e-02,-1.399088136559536455e-01,-1.657059246403790875e-01,-1.398881380718966783e-01,-4.524238645802593911e-02,1.140661276534756519e-01,3.047808245234642777e-01,4.673458260807863973e-01,5.318385498864166561e-01,4.439150897999940004e-01,1.916438818519850262e-01,-1.789144633688942998e-01,-5.691287046076708434e-01,-8.561341141728933124e-01,-9.356793640241213295e-01,-7.631265542097966925e-01,-3.750400067528039116e-01,1.192541819580694024e-01,5.743180005572690039e-01,8.593839298376164670e-01,9.029860916337915100e-01,7.140064866388426967e-01,3.721678992472287617e-01,-6.016660608066370756e-03,-3.103972472365515434e-01,-4.720634968402800391e-01,-4.781783412201983663e-01,-3.647194695048620039e-01,-1.940436857865068809e-01,-2.866271226507109693e-02,8.844389741206458433e-02,1.416207761747554361e-01,1.389517016789661163e-01,1.019233310009855509e-01,5.408600475981150540e-02,1.300234204397555590e-02,-1.287503447271217197e-02,-2.313682534466983062e-02,-2.215014422908413369e-02,-1.560476855908412772e-02,-8.137931453428743495e-03,-2.381592149580709014e-03,8.852788266570547427e-04,2.049407533948219892e-03,1.935760855358906662e-03,1.310105781183563576e-03,6.649178245463308479e-04,2.131152389065663457e-04,-2.075892572487266345e-05,-9.775021773270299249e-05,-9.264731009211991909e-05,-6.034597262574110862e-05,-2.961538937623996764e-05,-9.864995719805971994e-06,-4.439579529215778771e-07,2.481888845109316369e-06,2.424532743959107811e-06,1.525339593196801731e-06,7.209093757419006710e-07,2.421837799006786795e-07,3.009581459101497634e-08,-3.283952203799462378e-08,-3.461105760367682099e-08,-2.115480277006579262e-08,-9.607599128833466726e-09,-3.194792767761358944e-09,-5.407948801486394709e-10,};//,